digraph Tree {
node [shape=box] ;
0 [label="X[1] <= 5131.5\ngini = 0.496\nsamples = 53\nvalue = [24, 29]"] ;
1 [label="X[1] <= 2236.0\ngini = 0.498\nsamples = 43\nvalue = [23, 20]"] ;
0 -> 1 [labeldistance=2.5, labelangle=45, headlabel="True"] ;
2 [label="X[1] <= 1988.0\ngini = 0.278\nsamples = 12\nvalue = [2, 10]"] ;
1 -> 2 ;
3 [label="X[2] <= 998.5\ngini = 0.444\nsamples = 3\nvalue = [2, 1]"] ;
2 -> 3 ;
4 [label="gini = 0.0\nsamples = 2\nvalue = [2, 0]"] ;
3 -> 4 ;
5 [label="gini = 0.0\nsamples = 1\nvalue = [0, 1]"] ;
3 -> 5 ;
6 [label="gini = 0.0\nsamples = 9\nvalue = [0, 9]"] ;
2 -> 6 ;
7 [label="X[0] <= 19.5\ngini = 0.437\nsamples = 31\nvalue = [21, 10]"] ;
1 -> 7 ;
8 [label="X[1] <= 4203.5\ngini = 0.165\nsamples = 11\nvalue = [10, 1]"] ;
7 -> 8 ;
9 [label="gini = 0.0\nsamples = 10\nvalue = [10, 0]"] ;
8 -> 9 ;
10 [label="gini = 0.0\nsamples = 1\nvalue = [0, 1]"] ;
8 -> 10 ;
11 [label="X[0] <= 22.5\ngini = 0.495\nsamples = 20\nvalue = [11, 9]"] ;
7 -> 11 ;
12 [label="X[1] <= 3053.0\ngini = 0.473\nsamples = 13\nvalue = [5, 8]"] ;
11 -> 12 ;
13 [label="gini = 0.0\nsamples = 3\nvalue = [3, 0]"] ;
12 -> 13 ;
14 [label="X[0] <= 20.5\ngini = 0.32\nsamples = 10\nvalue = [2, 8]"] ;
12 -> 14 ;
15 [label="X[1] <= 3333.5\ngini = 0.5\nsamples = 4\nvalue = [2, 2]"] ;
14 -> 15 ;
16 [label="gini = 0.0\nsamples = 2\nvalue = [0, 2]"] ;
15 -> 16 ;
17 [label="gini = 0.0\nsamples = 2\nvalue = [2, 0]"] ;
15 -> 17 ;
18 [label="gini = 0.0\nsamples = 6\nvalue = [0, 6]"] ;
14 -> 18 ;
19 [label="X[1] <= 3534.5\ngini = 0.245\nsamples = 7\nvalue = [6, 1]"] ;
11 -> 19 ;
20 [label="gini = 0.0\nsamples = 1\nvalue = [0, 1]"] ;
19 -> 20 ;
21 [label="gini = 0.0\nsamples = 6\nvalue = [6, 0]"] ;
19 -> 21 ;
22 [label="X[1] <= 6045.0\ngini = 0.18\nsamples = 10\nvalue = [1, 9]"] ;
0 -> 22 [labeldistance=2.5, labelangle=-45, headlabel="False"] ;
23 [label="gini = 0.0\nsamples = 9\nvalue = [0, 9]"] ;
22 -> 23 ;
24 [label="gini = 0.0\nsamples = 1\nvalue = [1, 0]"] ;
22 -> 24 ;
}